-0.2533092498779297,-0.6927708983421326,0.19017350673675537,-0.17948125302791595,0.05794543772935867,0.3150760531425476,0.018739966675639153,0.19536440074443817,-0.045782167464494705,-0.2352917641401291,0.15737922489643097,-0.6675540804862976,0.16134878993034363,-0.02607128769159317,-0.1526624858379364,0.17470183968544006,0.06825249642133713,0.38243934512138367,0.0016219508834183216,-0.1693134903907776,0.12928900122642517,0.30390986800193787,0.25519660115242004,0.17205196619033813,-0.060709599405527115,0.20566411316394806,0.10671450942754745,-0.05693894252181053,-0.16372187435626984,-0.20964713394641876,-0.03519870340824127,0.24609436094760895,-0.1118384599685669,0.10167229920625687,0.25932976603507996,-0.338281512260437,0.0682755783200264,0.2909540832042694,-0.22060050070285797,-0.23583276569843292,-0.061827223747968674,0.11247529834508896,0.2485741525888443,0.06840171664953232,-0.3031095862388611,-0.2572559118270874,0.2564854919910431,-0.01894732378423214,-0.1925564855337143,-0.010919243097305298,-0.017133550718426704,-0.025779983028769493,0.18679656088352203,0.15609057247638702,-0.1256391555070877,0.2372887283563614,0.02854260988533497,0.16111961007118225,-0.196893572807312,-0.050722673535346985,-0.1492566019296646,0.0833761990070343,-0.316559374332428,0.06716320663690567,-0.6310796141624451,-1.760333776473999,1.8899786472320557,-1.4619220495224,1.5560742616653442,2.1451687812805176,-1.7017019987106323,-2.04245924949646,1.081555962562561,-0.1659623384475708,1.8890026807785034,-0.26566827297210693,-1.6133960485458374,-1.5528984069824219,0.26211971044540405,1.9607752561569214,0.33860206604003906,-0.18520399928092957,0.4200316369533539,-0.13478295505046844,0.05268722400069237,0.5214911103248596,-0.14022530615329742,-0.017463957890868187,0.3035328984260559,0.3042812645435333,-0.2567410171031952,0.3659415543079376,-0.03147153556346893,-0.15579739212989807,0.5371962785720825,0.28506940603256226,0.3375564217567444,-0.027474867179989815,0.4346468448638916,-0.394164115190506,0.18733841180801392,0.09987620264291763,-0.21248546242713928,0.23716850578784943,0.21723975241184235,-0.11406616866588593,0.22640947997570038,0.11215580999851227,-0.2840534746646881,0.1374000459909439,-0.26919570565223694,0.15010367333889008,0.23722407221794128,0.21336251497268677,0.12747550010681152,0.07051420956850052,0.09415934234857559,0.2465435415506363,-0.2724415957927704,-0.04101298749446869,-0.15862584114074707,0.06108565628528595,0.19854475557804108,0.24300161004066467,0.06785255670547485,0.009096884168684483,-0.10881300270557404,0.2710486352443695,0.04090142250061035,-0.0009311687317676842,0.1298375129699707,0.0312360767275095,-0.013976595364511013,-0.07321904599666595,0.08848869055509567,-0.1806715428829193,0.31488916277885437,0.2180655300617218,-0.14015457034111023,0.12278803437948227,-0.3356071412563324,-0.0696653351187706,-0.36291787028312683,0.05079794302582741,-0.18938544392585754,0.5211135745048523,-0.03250044956803322,0.5051449537277222,-0.1497468799352646,-0.08501915633678436,0.5584697127342224,0.21876800060272217,0.17319941520690918,-0.20108912885189056,-0.07880740612745285,0.08334782719612122,0.20722565054893494,0.5791793465614319,-0.11132803559303284,-0.17321030795574188,-0.20380929112434387,0.1470026671886444,0.1827990859746933,0.21587271988391876,0.2260572910308838,0.32566726207733154,0.1674734205007553,-0.08194561302661896,-0.07438556849956512,-0.29837721586227417,0.098567895591259,0.2537772059440613,-0.18469372391700745,0.14440415799617767,-0.11804917454719543,0.23777075111865997,0.16372127830982208,0.03636600077152252,0.03588457778096199,-0.08559900522232056,-0.07729244232177734,0.3491813838481903,0.1470487415790558,-0.030741851776838303,-0.050925254821777344,-0.018923399969935417,0.00881879311054945,-0.23107263445854187,-0.11032282561063766,-0.1870119273662567,0.08403658866882324,0.13345186412334442,-0.27061042189598083,-0.2593029737472534,0.04459982365369797,0.044820401817560196,-0.11095181107521057,0.00891488790512085,-0.24765746295452118,-0.07082793861627579,0.23865541815757751,0.15050528943538666,-0.07347492128610611,0.11945293843746185,0.16476508975028992,0.02426786907017231,0.19894523918628693,0.29568353295326233,0.08640383183956146,0.09927781671285629,0.15701156854629517,0.24299362301826477,-0.14238326251506805,-0.08604438602924347,-0.17542940378189087,0.14075681567192078,-0.4277123212814331,-0.19812391698360443,0.2642636001110077,-0.05654686316847801,-0.190003901720047,-0.07649649679660797,0.12906134128570557,0.03546221926808357,-0.09048990905284882,0.34070220589637756,-0.03208961710333824,0.004899440333247185,-0.21884778141975403,-0.13830752670764923,0.20910589396953583,-0.1636541783809662,-0.053212929517030716,-0.09890884160995483,0.23064696788787842,-0.23229514062404633,-0.03914433345198631,-0.06022820621728897,-0.358260840177536,0.02657538652420044,0.1414804607629776,-0.1208958774805069,-0.0971795916557312,0.3071814477443695,0.10750872641801834,-0.027726557105779648,0.05054705962538719,-0.06318251043558121,0.1314423531293869,-0.3775288462638855,-0.08806802332401276,0.003223923034965992,0.21524834632873535,-0.18933077156543732,-0.06291652470827103,-0.10237728804349899,0.31040728092193604,-0.2629978060722351,0.24161744117736816,0.011540886014699936,0.11343135684728622,0.10337945073843002,-0.060003336519002914,0.154769167304039,0.18987636268138885,0.23480233550071716,0.035540323704481125,-0.2511347830295563,-0.036120619624853134,-0.07328362762928009,-0.10714004933834076,0.06395314633846283,-0.39814287424087524,-0.18928919732570648,-0.11873975396156311,-0.005206009838730097,0.06949210166931152,0.22139862179756165,-0.07655073702335358,-0.04085090011358261,-0.0740312710404396,0.13266368210315704,0.0012860816204920411,0.19769521057605743,0.1594526618719101,-0.03103005699813366,0.24246250092983246,0.034517765045166016,0.11538783460855484,0.2676936686038971,-0.17269624769687653,-0.028798241168260574,0.006729735527187586,0.00455864192917943,0.1782320737838745,-0.03336504101753235,-0.525604248046875,0.007169023156166077,0.005006561055779457,-0.1804593801498413,0.11627000570297241,-0.12530788779258728,-0.403500497341156,0.008540852926671505,-0.012096350081264973,0.2431849092245102,-0.1770748794078827,-0.0008843412506394088,0.16710220277309418,-0.11833644658327103,0.06830843538045883,-0.05518053472042084,0.1251790076494217,-0.5042494535446167,0.15705785155296326,0.23081625998020172,0.1987602859735489,0.07062895596027374,-0.338407963514328,-0.11186400800943375,0.02622600458562374,-0.004995550028979778,-0.1529577672481537,0.18890906870365143,0.013518493622541428,0.021458540111780167,-0.11114169657230377,0.145200714468956,-0.3682628273963928,-0.18508833646774292,-0.09092199057340622,0.022579379379749298,0.34174832701683044,-0.24324442446231842,-0.3030022382736206,-0.10308490693569183,0.10142723470926285,-0.024595359340310097,-0.015191285870969296,0.25209376215934753,-0.19099508225917816,-0.12879592180252075,0.0650600790977478,0.021411677822470665,-0.24191978573799133,0.030261613428592682,-0.3070988059043884,0.12107022851705551,0.14722689986228943,-0.46597641706466675,-0.2102498859167099,0.15470284223556519,-0.13529643416404724,0.10518737882375717,-0.007469255942851305,0.24350199103355408,0.15829968452453613,0.16915522515773773,0.0650123879313469,0.22478342056274414,-0.3259586989879608,0.11861775815486908,0.16454258561134338,-0.06504850834608078,0.08619645237922668,-0.05090303719043732,-0.07928048074245453,0.25225433707237244,0.43616658449172974,0.15229174494743347,-0.16067537665367126,0.0572376474738121,-0.21905642747879028,0.09586648643016815,0.02215043641626835,-0.05373653024435043,-0.09003408253192902,0.11701846122741699,0.2709391713142395,-0.26009562611579895,0.15185357630252838,-0.20717719197273254,0.34503525495529175,0.09367549419403076,0.2072972059249878,-0.08833649009466171,-0.18959029018878937,-0.040493737906217575,-0.19728587567806244,0.008588678203523159,0.14965063333511353,-0.27826178073883057,0.167013481259346,0.25555145740509033,0.08803918957710266,0.17303769290447235,0.1287418007850647,-0.20386186242103577,-0.16119107604026794,0.2158949375152588,-0.08862023055553436,0.14465011656284332,-0.11019261926412582,-0.08342158794403076,-0.1842191219329834,0.37698298692703247,-0.22021521627902985,0.1269724816083908,0.05727346986532211,0.15296819806098938,-0.052816446870565414,-0.3385457694530487,0.16403649747371674,0.003995239734649658,-0.09942586719989777,0.08934138715267181,0.0013895734446123242,0.0764436423778534,-0.1742716282606125,-0.14819219708442688,0.18305854499340057,-0.2011018544435501,0.11732832342386246,0.11868883669376373,-0.5441538691520691,-0.18365734815597534,0.21658822894096375,0.29713281989097595,0.1622474491596222,-0.07635093480348587,-0.39253976941108704,-0.02151304855942726,0.03203986585140228,0.18923865258693695,0.17670919001102448,0.11638765037059784,0.07562802731990814,-0.1384267359972,0.07717971503734589,0.06408245116472244,0.10121934860944748,0.02106592059135437,-0.06366544216871262,0.12517905235290527,0.11435521394014359,-0.13029883801937103,-0.21774348616600037,0.10329863429069519,0.1120387464761734,0.16310909390449524,-0.16141970455646515,0.3049524128437042,0.3584432005882263,-0.09903255105018616,-0.13192452490329742,-0.02824380435049534,-0.6317394375801086,-0.13642677664756775,0.21099786460399628,0.17573820054531097,0.14299285411834717,-0.34688496589660645,0.16909296810626984,-0.1223660334944725,-0.26071691513061523,-0.08567062765359879,-0.25155311822891235,0.12038657814264297,-0.08586336672306061,0.0694238543510437,0.06473871320486069,0.059694476425647736,-0.1202114075422287,-0.17775195837020874,0.13297118246555328,-0.010553659871220589,0.02532903105020523,0.16396485269069672,-0.31901392340660095,-0.060278940945863724,0.769891083240509,0.10072214156389236,-0.5594184398651123,0.27809062600135803,0.12204699218273163,0.030725231394171715,0.021059731021523476,0.22391140460968018,-0.34354451298713684,0.16410037875175476,0.10563822835683823,-0.05548514053225517,0.33123329281806946,-0.012055621482431889,0.19462065398693085,0.07117991894483566,0.1834421157836914,-0.1591348946094513,-0.13019146025180817,0.11406178027391434,-0.0938149094581604,0.36928051710128784,-0.10815470665693283,0.19081899523735046,-0.5844459533691406,0.12439890205860138,-0.14856936037540436,0.008851373568177223,-0.19702602922916412,-0.03425125777721405,-0.10520584881305695,-0.10034020990133286,-0.021836787462234497,0.0629625990986824,-0.06221659108996391,0.21846067905426025,-0.01784619316458702,0.20801877975463867,-0.25017887353897095,0.03209972009062767,0.09667295962572098,-0.19801609218120575,-0.3898392915725708,-0.007192401215434074,0.1039339154958725,-0.15711185336112976,0.03444463014602661,0.2273394763469696,0.03360121324658394,-0.036623138934373856,0.08689496666193008,0.09190767258405685,0.19776393473148346,0.31841522455215454,-0.06431908905506134,-0.14699335396289825,-0.5004149079322815,-0.058081552386283875,-0.1757039874792099,-0.05493057519197464,0.14697757363319397,0.2302442342042923,-0.2842962443828583,-0.0801628902554512,-0.40864884853363037,0.29680144786834717,0.23932293057441711,-0.05881549045443535,0.022741790860891342,-0.0783497765660286,-0.12147250026464462,0.10276687145233154,0.14021173119544983,0.3423057198524475,0.25363269448280334,0.08964132517576218,0.0869898721575737,0.23251256346702576,-0.06919633597135544,0.2080506533384323,-0.08559322357177734,-0.024628015235066414,-0.14041553437709808,-0.07879313826560974,-0.07319574803113937,-0.09238023310899734,-0.1299630105495453,-0.04229770228266716,-0.005040024407207966,0.3744257390499115,0.04835234954953194,0.1943207085132599,-0.017760412767529488,0.18242806196212769,0.09286525845527649,-0.10564733296632767,-0.025214361026883125,-0.05071202665567398,0.2695986330509186,0.10609225928783417,-0.3403899371623993,0.04831293970346451,0.2068323940038681,-0.03457801789045334,-0.21876896917819977,-0.1605098992586136,0.1241479441523552,0.12713992595672607,0.13734039664268494,0.2177691012620926,0.14503075182437897,-0.033430155366659164,0.217117577791214,0.07800571620464325,0.03529958054423332,0.11947845667600632,0.09826336801052094,-0.1341353803873062,0.12713998556137085,0.0991232618689537,-0.1216619461774826,-0.0842418447136879,0.22226175665855408,-0.2698395252227783,0.14781233668327332,0.1299951672554016,-0.0747728943824768,0.14615817368030548,0.2794961929321289,0.13088765740394592,-0.1770346313714981,0.036792654544115067,0.16348950564861298,-0.32656577229499817,0.23216032981872559,0.061451129615306854,0.14780552685260773,0.23253540694713593,-0.19112884998321533,0.2988203465938568,-0.1768612563610077,-0.2416236698627472,-0.1424730271100998,-0.1392473727464676,0.050739604979753494,0.19322828948497772,-0.19843830168247223,0.024169400334358215,0.21813297271728516,-0.15920737385749817,0.2420986294746399,0.009172288700938225,-0.62440025806427,-0.1760154515504837,0.054688867181539536,-0.2100878208875656,-0.038694411516189575,0.030239561572670937,-0.2496744692325592,0.025362830609083176,-0.11575675010681152,0.106508269906044,-0.14343790709972382,0.02244856394827366,0.2527260184288025,-0.0887870267033577,0.23563043773174286,0.12100362777709961,-0.10787191987037659,-0.11739474534988403,0.039515890181064606,0.21192200481891632,-0.07658611238002777,-0.03173130378127098,0.3033987581729889,-0.09498099982738495,0.0971105694770813,-0.04907809942960739,-0.3268756568431854,-0.052357982844114304,-0.047499313950538635,0.26508888602256775,-0.06893661618232727,-0.10145993530750275,0.05541771277785301,0.016858182847499847,-0.05389760807156563,0.20760536193847656,0.016962120309472084,0.022850770503282547,0.20843848586082458,-0.22283042967319489,-0.2763864994049072,0.224239319562912,-0.0809633657336235,0.0028022860642522573,-0.22227974236011505,0.00417357636615634,0.24197787046432495,0.4134017527103424,0.12441160529851913,-0.2500709891319275,-0.09893816709518433,-0.04738832265138626,0.10474011301994324,0.3274242579936981,0.36185336112976074,-0.029117248952388763,0.14239971339702606,-0.05554873123764992,-0.06509047001600266,0.1468261331319809,0.019869791343808174,-0.029247581958770752,0.03115047886967659,-0.08434925228357315,-0.36892348527908325,0.12847211956977844,-0.2523548901081085,-0.20260801911354065,0.2251848578453064,-0.10048776865005493,-0.2651491165161133,-0.3143463730812073,0.11990661919116974,0.25139087438583374,-0.056511275470256805,0.17676474153995514,0.20859500765800476,-0.1870957314968109,0.11458221822977066,0.29439792037010193,0.0992499440908432,-0.25198641419410706,-0.04150482639670372,0.016380788758397102,0.1973290592432022,-0.11724734306335449,-0.3444958031177521,0.06744835525751114,0.16436335444450378,0.32533520460128784,-0.2399662584066391,-0.20148317515850067,-0.08544007688760757,-0.14131760597229004,0.00850299745798111,-0.10215985774993896,0.16137143969535828,0.14584411680698395,-0.0507424920797348,0.18461070954799652,0.21322031319141388,0.36426636576652527,-0.03847070410847664,0.17016349732875824,0.16905725002288818,-0.09580259770154953,0.02264198660850525,0.28141793608665466,0.11980128288269043,0.017269743606448174,0.19676686823368073,0.17249928414821625,-0.19491316378116608,-0.42945295572280884,-0.02042447403073311,-0.1593041718006134,0.25705191493034363,0.09076565504074097,-0.00877620279788971,-0.10480611771345139,0.5267049074172974,0.17944642901420593,0.2476423978805542,0.20106759667396545,0.05169536545872688,-0.014547974802553654,-0.17867490649223328,-0.2749750018119812,-0.147054061293602,0.44480329751968384,-0.04545614868402481,-0.08261069655418396,0.08888080716133118,0.15044496953487396,0.12198061496019363,0.23059909045696259,-0.01790105551481247,0.08889737725257874,-0.059066157788038254,-0.0010139381047338247,-0.171014204621315,0.15794570744037628,0.08275369554758072,0.18629783391952515,0.19512003660202026,0.10982084274291992,-0.0715671107172966,-0.20667682588100433,-0.26802533864974976,-0.10443268716335297,-0.3157568573951721,0.2547174394130707,0.4310248792171478,-0.2740827202796936,-0.42993971705436707,0.17589783668518066,0.058235932141542435,0.08620705455541611,-0.046805355697870255,-0.1453276127576828,0.42871809005737305,0.23662425577640533,-0.2269851416349411,0.049484726041555405,0.1470976620912552,-0.15552182495594025,-0.14303740859031677,-0.17367063462734222,-0.057635597884655,-0.0661054253578186,-0.0581500343978405,0.270590215921402,-0.1671607941389084,-0.048869576305150986,-0.07852471619844437,0.3536641001701355,-0.09035108238458633,0.07644572854042053,-0.16873551905155182,0.35160619020462036,-0.06133643165230751,0.37135249376296997,-0.07478954643011093,-0.12174688279628754,0.027449853718280792,0.15715625882148743,0.09881529211997986,-0.22071228921413422,-0.12084344029426575,-0.06608910113573074,0.02860364131629467,-0.07811206579208374,0.07732110470533371,-0.05930013954639435,0.2233760803937912,0.15475428104400635,0.10875412076711655,0.09456406533718109,-0.21342253684997559,-0.24944965541362762,0.6660545468330383,0.22680489718914032,0.007384188007563353,0.11889243125915527,0.024028481915593147,-0.0012047901982441545,0.16181673109531403,0.07700971513986588,-0.3947139382362366,-0.05091695487499237,-0.08545900881290436,0.1539817899465561,-0.15510600805282593,-0.02184772863984108,-0.0793246254324913,-0.16616445779800415,0.0048807598650455475,0.01458748709410429,-0.23273177444934845,0.017178332433104515,-0.14696645736694336,0.030447017401456833,0.19127802550792694,0.1271405816078186,-0.12647470831871033,0.33196327090263367,0.1653725653886795,0.35468143224716187,0.13746213912963867,-0.05889572203159332,-0.07860442996025085,0.08906854689121246,0.3074418902397156,-0.056183815002441406,-0.15507830679416656,-0.0336475744843483,-0.14966794848442078,0.041008222848176956,0.03724817559123039,-0.022447021678090096,-0.464059978723526,0.13212978839874268,-0.0076516177505254745,0.22291919589042664,-0.10598386824131012,0.05913669615983963,-0.11872529983520508,-0.20182441174983978,0.1813240647315979,0.012643493711948395,-0.13174325227737427,0.2701009213924408,0.15388169884681702,-0.057509128004312515,-0.2109554260969162,0.08621197938919067,-0.023682253435254097,-0.23296886682510376,0.24753566086292267,0.22299408912658691,-0.16476525366306305,-0.35774460434913635,-0.12041322886943817,-0.07121352851390839,0.056557945907115936,0.014646409079432487,0.03453875333070755,0.055616188794374466,0.23389054834842682,-0.06587423384189606,0.061782944947481155,-0.0052786171436309814,0.4447598159313202,0.27829667925834656,0.053757213056087494,-0.10081982612609863,0.13938185572624207,0.1880568414926529,-0.16187824308872223,0.2957165241241455,0.053420014679431915,-0.18751341104507446,-0.14849090576171875,0.007599563803523779,0.120917908847332,-0.0036523824092000723,-0.24834378063678741,0.053313128650188446,-0.35470080375671387,-0.18465790152549744,-0.04291488602757454,-0.12873347103595734,0.14263993501663208,-0.11959951370954514,0.07954590022563934,0.011800823733210564,-0.10849703848361969,-0.37049832940101624,0.0942961797118187,0.011880562640726566,-0.12452596426010132,-0.003440004074946046,0.02556307055056095,0.04676095023751259,0.2525176405906677,0.07159033417701721,-0.10271355509757996,-0.22106054425239563,0.07034449279308319,-0.0009155242005363107,-0.21548056602478027,0.01215808279812336,0.05979923903942108,-0.056405141949653625,0.2319890409708023,-0.10695715248584747,-0.2582258880138397,-0.380307674407959,-0.008538676425814629,0.04818913713097572,0.4282229542732239,-0.17572230100631714,-0.2174546867609024,0.1176438182592392,-0.03572302684187889,0.19722534716129303,0.051659226417541504,0.17575068771839142,0.6390563249588013,0.27095845341682434,0.2565805912017822,0.09372511506080627,0.23081183433532715,0.039169155061244965,-0.12721765041351318,0.008895881474018097,0.06100591644644737,0.027730703353881836,-0.21295315027236938,-0.020761871710419655,-0.01506129652261734,-0.1142430379986763,0.1456214338541031,-0.08041113615036011,-0.22962303459644318,0.20860810577869415,-0.14470960199832916,0.044812656939029694,-0.18029537796974182,-0.43774205446243286,0.009485269896686077,0.238567516207695,0.123966284096241,0.02173110842704773,-0.45894378423690796,0.14901936054229736,0.1586659848690033,0.17680451273918152,-0.02766992151737213,-0.21832920610904694,-0.05215052142739296,0.4142092168331146,-0.04280441999435425,-0.17347894608974457,0.3013644218444824,0.07797843962907791,0.1722637563943863,-0.25289133191108704,-0.3172260522842407,-0.0034408867359161377,0.18500865995883942,0.4904307723045349,-0.02035803720355034,-0.08870313316583633,-0.16094310581684113,0.017837252467870712,0.5804570317268372,-0.05447395518422127,0.0024123582988977432,0.12511460483074188,0.19458669424057007,-0.1495351940393448,-0.11231159418821335,0.16325585544109344,-0.1324034333229065,0.18082602322101593,0.14688624441623688,-0.13523510098457336,0.14935994148254395,-0.13130979239940643,0.029737845063209534,-0.056170754134655,0.3624722361564636,-0.3321324288845062,-0.034827593713998795,-0.008106941357254982,-0.03190629184246063,0.25210273265838623,0.12846876680850983,-0.2169109582901001,-0.2076975554227829,-0.06315778195858002,0.2325991988182068,-0.06208337843418121,0.11982539296150208,-0.016150986775755882,0.09022118896245956,0.16597558557987213,0.287367045879364,-0.10383789241313934,0.21040551364421844,0.21432392299175262,0.06381791085004807,0.0020872110035270452,-0.17336095869541168,-0.2059687077999115,-0.03897771239280701,0.37803757190704346,-0.10545355081558228,0.21497277915477753,0.22802655398845673,0.27821844816207886,-0.18501535058021545,-0.02269277721643448,-0.17173421382904053,0.34301552176475525,-0.01656731590628624,-0.10208334773778915,-0.09114370495080948,0.17916540801525116,-0.19748662412166595,-0.07518290728330612,0.0952240526676178,-0.1342042088508606,-0.16637393832206726,-0.13472266495227814,0.1846824735403061,0.09208063781261444,0.20468670129776,-0.26305967569351196,0.12937627732753754,0.09113643318414688,-0.06450685858726501,-0.09758447855710983,0.029087869450449944,-0.12388572096824646,0.012544866651296616,-0.15055949985980988,-0.3454841673374176,-0.04851656034588814,0.3766902685165405,0.16241008043289185,0.004721440374851227,-0.3204125761985779,-0.06326623260974884,-0.06414448469877243,-0.00907716155052185,-0.47464898228645325,0.08925101906061172,0.20344175398349762,0.008602945134043694,0.024209825322031975,0.009419753216207027,-0.35082194209098816,-0.025348493829369545,0.07155150175094604,0.11153601855039597,0.2142331451177597,-0.17801901698112488,0.04830483719706535,0.2640462815761566,-0.13364511728286743,0.3620226979255676,0.1565849781036377,0.0058713434264063835,0.14486920833587646,-0.04711909592151642,0.29768913984298706,0.018123112618923187,-0.0826781839132309,-0.4438108801841736,-0.16219711303710938,0.26701951026916504,0.21327587962150574,0.17326301336288452,-0.03530605137348175,-0.10694584250450134,0.16527967154979706,0.2516138255596161,-0.12303389608860016,-0.05041227862238884,0.025258656591176987,0.15780746936798096,-0.19001717865467072,-0.16095302999019623,0.29462650418281555,-0.09846480190753937,0.09732168167829514,0.19645890593528748,0.16662533581256866,0.24792630970478058,0.2130666971206665,0.42370715737342834,0.18489432334899902,0.0800032913684845,0.2615891695022583,-0.0563129261136055,0.33788275718688965,-0.17959313094615936,0.0753464326262474,0.33024781942367554,-0.18341469764709473,-0.20715469121932983,0.22186924517154694,-0.11571669578552246,0.5726646780967712,0.0022599936928600073,0.17886000871658325,-0.2133648842573166,-0.1623324453830719,0.06139276921749115,0.21022546291351318,-0.14908011257648468,0.07990418374538422,-0.052336715161800385,0.16350853443145752,0.14057348668575287,-0.11443718522787094,0.07244441658258438,-0.2316657453775406,0.028973791748285294,0.10005048662424088,0.13761605322360992,0.12351206690073013,-0.21503205597400665,0.21728776395320892,-0.14867432415485382,-0.0841890424489975,0.03823550418019295,0.3905763626098633,-0.047373417764902115,-0.12426118552684784,-0.18493375182151794,0.2534807324409485,0.10576596856117249,0.020812567323446274,0.09058109670877457,0.08222674578428268,0.23372042179107666,0.25928497314453125,-0.043293192982673645,-0.14189860224723816,-0.21160922944545746,0.5178220272064209,-0.4309595823287964,0.7375978231430054,-0.20291240513324738,-0.41239967942237854,0.30136412382125854,0.7340403199195862,-0.23424457013607025,-0.21752102673053741,-0.4239569306373596,0.051844846457242966,0.6879413723945618,0.4259461760520935,-0.07415743172168732,-0.636006772518158,0.053861040621995926,-0.05991800129413605,0.00343909440562129,-0.09846307337284088,-0.17152121663093567,0.1329854130744934,0.07374648749828339,0.20767422020435333,-0.3828253149986267,0.42414748668670654,-0.011893758550286293,-0.2435513436794281,0.17512543499469757,0.23337993025779724,0.2911132574081421,0.03262805566191673,-0.23523437976837158,0.12020501494407654,0.11757861822843552,0.15343794226646423,-0.05726917088031769,0.04265822842717171,-0.07435174286365509,-0.2520972192287445,-0.055810604244470596,-0.22664141654968262,-0.05440644547343254,0.009043269790709019,0.13944394886493683,-0.014040222391486168,0.3355710804462433,0.1503879874944687,-0.07996585220098495,0.016981707885861397,-0.1750725656747818,-0.20777560770511627,0.04169853404164314,-0.017251402139663696,-0.015703361481428146,0.033339835703372955,-0.1385427713394165,0.08020415157079697,-0.0837944895029068,-0.024586644023656845,0.017130574211478233,0.03022938035428524,-0.10318507254123688,0.04832295700907707,0.29630255699157715,0.13240796327590942,0.2122071534395218,0.04542723298072815,-0.014160594902932644,-0.16548693180084229,0.042832668870687485,-0.09603763371706009,-0.14702048897743225,-0.14612236618995667,-0.13278190791606903,0.058162011206150055,-0.23801033198833466,-0.0016411605756729841,-0.2159753441810608,0.3126453757286072,0.36301735043525696,0.2940382957458496,0.1653987467288971,0.08441776037216187,0.39069828391075134,-0.20348866283893585,-0.06418241560459137,0.11751392483711243,0.40775948762893677,0.02016373537480831,-0.18297861516475677,-0.011485992930829525,-0.20261067152023315,0.2349047213792801,-0.12633875012397766,-0.13989758491516113,0.041066139936447144,0.40853846073150635,-0.20404495298862457,0.19840580224990845,0.21492934226989746,0.19485342502593994,0.14740154147148132,-0.23778913915157318,0.21844123303890228,-0.21577316522598267,-0.08232826739549637,-0.06965309381484985,-0.14806318283081055,0.2075120061635971,-0.059842318296432495,-0.3693664073944092,-0.08244501054286957,0.16596974432468414,-0.03019622713327408,-0.21325860917568207,-0.22068846225738525,0.03709191456437111,0.32050153613090515,0.21268682181835175,0.21241697669029236,0.03891976177692413,0.09916332364082336,0.3004673719406128,0.09019429981708527,-0.06197445094585419,0.08360632508993149,0.005904702004045248,-0.05277775228023529,-0.15084122121334076,-0.02871420606970787,-0.21114325523376465,-0.06762262433767319,0.10797299444675446,0.24095582962036133,0.20881573855876923,0.08612573146820068,0.07576989382505417,-0.059464406222105026,-0.030279679223895073,-0.09983891248703003,-0.11741264909505844,0.1936885416507721,0.10146874934434891,0.39394697546958923,-0.010218393057584763,-0.16197749972343445,0.3143990933895111,-0.16098198294639587,0.04478282481431961,-0.17821982502937317,0.2306843250989914,-0.05925123021006584,-0.09660601615905762,0.12147827446460724,0.3548368811607361,0.0466475784778595,-0.10047505795955658,-0.16963328421115875,-0.023540612310171127,0.6121975779533386,0.3155593276023865,-0.07284706085920334,0.023674409836530685,-0.18263177573680878,-0.20731180906295776,0.19268746674060822,0.4003047049045563,0.214292973279953,-0.05783921480178833,0.0005143690505065024,-0.0015814638463780284,-0.19030950963497162,-0.29380008578300476,0.07377254962921143,-0.3443965017795563,0.11467226594686508,0.07463101297616959,0.10338978469371796,-0.008254727348685265,0.1754748672246933,0.01945601776242256,-0.08005911856889725,0.08699264377355576,-0.2448042780160904,-0.09066445380449295,-0.2000424563884735,0.1504848748445511,-0.17586199939250946,0.24965929985046387,0.09874894469976425,0.00435494352132082,0.525276243686676,-0.26170316338539124,-0.32145634293556213,-0.07660169899463654,-0.17033669352531433,-0.2885468900203705,-0.04110177978873253,0.034350309520959854,-0.33289334177970886,-0.09941551089286804,-0.11877995729446411,0.043374985456466675,-0.11306586861610413,0.30621570348739624,-0.10080430656671524,-0.3841124176979065,0.4349251091480255,0.18895235657691956,-0.1255476176738739,-0.02557908557355404,0.26086756587028503,0.00020815730385947973,-0.07505043596029282,0.050556913018226624,-0.2838912010192871,0.16262927651405334,-0.14820080995559692,-0.09234603494405746,-0.16931037604808807,-0.13090060651302338,0.00761944055557251,0.26884210109710693
