-1.04264235496521,0.08971457183361053,-0.3874434530735016,-0.5083062052726746,0.9111952185630798,-0.4024817943572998,0.5767315030097961,0.8525155782699585,0.49268046021461487,-0.580801784992218,0.17506612837314606,-0.9854491353034973,0.8115890622138977,0.4642484188079834,-0.4167631268501282,0.7517088055610657,-0.14560307562351227,0.5655177235603333,-0.3385365307331085,-0.809788167476654,0.2809253931045532,-0.0316203311085701,1.038488745689392,0.840275764465332,-0.2206769585609436,0.381013959646225,-0.17118260264396667,0.2235778272151947,0.2392812967300415,0.06488460302352905,-0.5749006867408752,0.6799417734146118,0.041900258511304855,0.21189014613628387,0.3579695522785187,-0.14514757692813873,-0.3300809860229492,0.058686647564172745,-0.597527027130127,-0.46956562995910645,-0.33230161666870117,0.2089725136756897,0.14470666646957397,0.4385012984275818,-0.4295792579650879,-0.30399787425994873,0.1942460685968399,-0.7080886363983154,-0.5298762321472168,-0.2076842039823532,-0.4316757321357727,-0.20941199362277985,0.8467530608177185,-0.2712450325489044,0.27368757128715515,0.7583817839622498,0.6007317900657654,0.2272731065750122,-0.4761013388633728,-0.24839965999126434,-0.0521467849612236,0.5218735337257385,-0.5470971465110779,0.548603892326355,0.4510803818702698,-0.2700580060482025,-0.1653427630662918,0.33359023928642273,0.42370080947875977,0.40805763006210327,0.3551543354988098,-0.4905194640159607,0.18483483791351318,-0.2893069088459015,-0.4432676434516907,0.2288842648267746,0.2283317744731903,-0.13969115912914276,-0.0505039282143116,0.06372255831956863,0.7212600708007812,0.11089304089546204,0.6714945435523987,0.7302847504615784,-0.3942840099334717,0.7905781865119934,-0.5096896290779114,0.2196170836687088,0.08974989503622055,0.4685218036174774,-0.6270854473114014,0.7696884274482727,-0.47396478056907654,-0.12690533697605133,0.27834826707839966,-0.013364747166633606,0.24377380311489105,0.4746606945991516,0.4096207022666931,-0.619850218296051,0.7275925278663635,-0.7132851481437683,0.16562698781490326,0.8839940428733826,0.3673965632915497,-0.5783374309539795,0.25560659170150757,-0.1078762412071228,0.24926702678203583,0.8044310808181763,-0.5113508105278015,0.3981699049472809,0.520500659942627,-0.2154812514781952,-0.022412652149796486,0.3624303638935089,0.23111596703529358,0.09347224235534668,-0.25042712688446045,0.5111126899719238,-0.01520550437271595,0.006091832183301449,-0.1585446298122406,0.17597083747386932,0.7675682306289673,0.6023755073547363,-0.4892626106739044,0.6669295430183411,0.5785183310508728,0.19490505754947662,0.7349793314933777,0.3764646351337433,-0.5625256299972534,-0.05425424501299858,-0.23425430059432983,-0.8119403719902039,0.11932238936424255,-0.16385126113891602,-0.6268988251686096,1.11636483669281,-0.940544068813324,-0.8460736274719238,-0.24442431330680847,-0.3677462637424469,0.04712708294391632,0.23312026262283325,1.0799500942230225,0.8478853702545166,-0.7114681601524353,1.1987813711166382,-0.1373986452817917,-0.968493640422821,-0.2272568643093109,-0.8041884899139404,0.0770002007484436,0.7442891597747803,-1.0599054098129272,-0.02356313355267048,-0.2611147165298462,-0.3914142847061157,0.002961904974654317,0.1716427356004715,0.7463787794113159,0.5713745355606079,0.1565677672624588,0.834862470626831,0.06215938925743103,-0.4665106236934662,-0.2508085072040558,-0.7073251605033875,0.07236780971288681,0.6611709594726562,-0.538478672504425,0.24658064544200897,0.013662900775671005,0.3156357705593109,-0.8044592142105103,-0.3447878360748291,-0.559171199798584,-0.6265522241592407,0.30743837356567383,0.1112363263964653,0.9881165027618408,0.32129141688346863,0.6018004417419434,-0.3758997619152069,0.23735065758228302,-1.1166718006134033,0.10834317654371262,0.31697365641593933,-0.12815365195274353,0.6685459017753601,-0.7444706559181213,-0.5088471174240112,-0.4664772152900696,0.22974324226379395,-0.011573223397135735,-0.5079687237739563,-0.008638525381684303,0.35427936911582947,0.7118220925331116,-0.04032742232084274,-0.406276673078537,-0.1275148242712021,0.8415482044219971,0.5321894288063049,0.0697684958577156,0.909423828125,-0.5802980065345764,0.18177534639835358,0.011023139581084251,0.2503536641597748,-0.21072040498256683,-0.6522120833396912,-0.08494952321052551,0.7371588945388794,0.0640559196472168,-0.16037674248218536,0.3595579266548157,-0.3268008232116699,0.01668238826096058,0.4563126862049103,-0.10756237059831619,0.19574421644210815,0.47634947299957275,0.5228384733200073,0.5052951574325562,0.8524483442306519,-1.1726255416870117,0.388372540473938,0.3158261477947235,-1.0499939918518066,-0.7179914712905884,-0.7349538803100586,0.5407088994979858,0.15089325606822968,-0.6830180883407593,-0.6232765913009644,-0.4482657313346863,-0.6409973502159119,0.29817575216293335,-0.36113202571868896,0.23669731616973877,0.451651394367218,0.30923858284950256,0.24163493514060974,-0.22116586565971375,-0.40610265731811523,-0.06472346931695938,-0.38063350319862366,-0.1875145435333252,-0.30269965529441833,0.19756868481636047,-0.48648911714553833,-0.4774377644062042,-0.3789834976196289
